Language model created by QuickLM on Wed Sep  6 02:52:36 EDT 2017
Copyright (c) 1996-2010 Carnegie Mellon University and Alexander I. Rudnicky

The model is in standard ARPA format, designed by Doug Paul while he was at MITRE.

The code that was used to produce this language model is available in Open Source.
Please visit http://www.speech.cs.cmu.edu/tools/ for more information

The (fixed) discount mass is 0.5. The backoffs are computed using the ratio method.
This model based on a corpus of 48 sentences and 53 words

\data\
ngram 1=53
ngram 2=99
ngram 3=51

\1-grams:
-0.7871 </s> -0.3010
-0.7871 <s> -0.2236
-2.4683 ANDROID -0.2996
-2.4683 APP -0.2996
-2.4683 APPIUM -0.2236
-2.4683 CAFFEINE -0.2236
-2.4683 CALENDAR -0.2236
-2.4683 CHROME -0.2236
-2.4683 DRIVE -0.2236
-2.4683 EXCEL -0.2236
-2.4683 FACETIME -0.2236
-2.4683 FINDER -0.2236
-2.4683 FIREFOX -0.2236
-2.4683 GITHUB -0.2236
-2.4683 GO -0.2236
-2.4683 GOOGLE -0.2236
-2.4683 INTELLIJ -0.2236
-2.4683 ITUNES -0.2236
-2.4683 JGRASP -0.2236
-2.4683 KINDLE -0.2236
-2.4683 KODI -0.2236
-2.4683 MAC -0.2236
-2.4683 MAIL -0.2236
-2.4683 MAPS -0.2236
-2.4683 MESSAGES -0.2236
-2.4683 MONGODB -0.2236
-2.4683 NOTES -0.2236
-2.4683 OUTLOOK -0.2236
-2.4683 PAUSE -0.2236
-2.4683 PHOTOS -0.2236
-2.4683 PLAY -0.2236
-2.4683 PLAYER -0.2236
-2.4683 POWERPOINT -0.2236
-2.4683 PREVIEW -0.2236
-2.4683 PYTHON -0.2236
-2.4683 QUICKTIME -0.2996
-2.4683 SAFARI -0.2236
-2.4683 SELENIUM -0.2236
-2.4683 SETTINGS -0.2236
-2.4683 SKYPE -0.2236
-2.4683 SONOS -0.2236
-2.4683 SPOTIFY -0.2236
-2.4683 STICKIES -0.2236
-2.4683 STOP -0.2236
-2.4683 STORE -0.2236
-2.4683 STUDIOS -0.2236
-2.4683 SUBLIME -0.2236
-2.4683 TEAMVIEWER -0.2236
-2.4683 TERMINAL -0.2236
-2.4683 TEXT -0.2236
-2.4683 WIRESHARK -0.2236
-2.4683 WORD -0.2236
-2.4683 XCODE -0.2236

\2-grams:
-1.9823 <s> ANDROID 0.0000
-1.9823 <s> APP 0.0000
-1.9823 <s> APPIUM 0.0000
-1.9823 <s> CAFFEINE 0.0000
-1.9823 <s> CALENDAR 0.0000
-1.9823 <s> CHROME 0.0000
-1.9823 <s> DRIVE 0.0000
-1.9823 <s> EXCEL 0.0000
-1.9823 <s> FACETIME 0.0000
-1.9823 <s> FINDER 0.0000
-1.9823 <s> FIREFOX 0.0000
-1.9823 <s> GITHUB 0.0000
-1.9823 <s> GO 0.0000
-1.9823 <s> GOOGLE 0.0000
-1.9823 <s> INTELLIJ 0.0000
-1.9823 <s> ITUNES 0.0000
-1.9823 <s> JGRASP 0.0000
-1.9823 <s> KINDLE 0.0000
-1.9823 <s> KODI 0.0000
-1.9823 <s> MAC 0.0000
-1.9823 <s> MAIL 0.0000
-1.9823 <s> MAPS 0.0000
-1.9823 <s> MESSAGES 0.0000
-1.9823 <s> MONGODB 0.0000
-1.9823 <s> NOTES 0.0000
-1.9823 <s> OUTLOOK 0.0000
-1.9823 <s> PAUSE 0.0000
-1.9823 <s> PHOTOS 0.0000
-1.9823 <s> PLAY 0.0000
-1.9823 <s> POWERPOINT 0.0000
-1.9823 <s> PREVIEW 0.0000
-1.9823 <s> PYTHON 0.0000
-1.9823 <s> QUICKTIME 0.0000
-1.9823 <s> SAFARI 0.0000
-1.9823 <s> SELENIUM 0.0000
-1.9823 <s> SETTINGS 0.0000
-1.9823 <s> SKYPE 0.0000
-1.9823 <s> SONOS 0.0000
-1.9823 <s> SPOTIFY 0.0000
-1.9823 <s> STICKIES 0.0000
-1.9823 <s> STOP 0.0000
-1.9823 <s> SUBLIME 0.0000
-1.9823 <s> TEAMVIEWER 0.0000
-1.9823 <s> TERMINAL 0.0000
-1.9823 <s> TEXT 0.0000
-1.9823 <s> WIRESHARK 0.0000
-1.9823 <s> WORD 0.0000
-1.9823 <s> XCODE 0.0000
-0.3010 ANDROID STUDIOS 0.0000
-0.3010 APP STORE 0.0000
-0.3010 APPIUM </s> -0.3010
-0.3010 CAFFEINE </s> -0.3010
-0.3010 CALENDAR </s> -0.3010
-0.3010 CHROME </s> -0.3010
-0.3010 DRIVE </s> -0.3010
-0.3010 EXCEL </s> -0.3010
-0.3010 FACETIME </s> -0.3010
-0.3010 FINDER </s> -0.3010
-0.3010 FIREFOX </s> -0.3010
-0.3010 GITHUB </s> -0.3010
-0.3010 GO </s> -0.3010
-0.3010 GOOGLE </s> -0.3010
-0.3010 INTELLIJ </s> -0.3010
-0.3010 ITUNES </s> -0.3010
-0.3010 JGRASP </s> -0.3010
-0.3010 KINDLE </s> -0.3010
-0.3010 KODI </s> -0.3010
-0.3010 MAC </s> -0.3010
-0.3010 MAIL </s> -0.3010
-0.3010 MAPS </s> -0.3010
-0.3010 MESSAGES </s> -0.3010
-0.3010 MONGODB </s> -0.3010
-0.3010 NOTES </s> -0.3010
-0.3010 OUTLOOK </s> -0.3010
-0.3010 PAUSE </s> -0.3010
-0.3010 PHOTOS </s> -0.3010
-0.3010 PLAY </s> -0.3010
-0.3010 PLAYER </s> -0.3010
-0.3010 POWERPOINT </s> -0.3010
-0.3010 PREVIEW </s> -0.3010
-0.3010 PYTHON </s> -0.3010
-0.3010 QUICKTIME PLAYER 0.0000
-0.3010 SAFARI </s> -0.3010
-0.3010 SELENIUM </s> -0.3010
-0.3010 SETTINGS </s> -0.3010
-0.3010 SKYPE </s> -0.3010
-0.3010 SONOS </s> -0.3010
-0.3010 SPOTIFY </s> -0.3010
-0.3010 STICKIES </s> -0.3010
-0.3010 STOP </s> -0.3010
-0.3010 STORE </s> -0.3010
-0.3010 STUDIOS </s> -0.3010
-0.3010 SUBLIME </s> -0.3010
-0.3010 TEAMVIEWER </s> -0.3010
-0.3010 TERMINAL </s> -0.3010
-0.3010 TEXT </s> -0.3010
-0.3010 WIRESHARK </s> -0.3010
-0.3010 WORD </s> -0.3010
-0.3010 XCODE </s> -0.3010

\3-grams:
-0.3010 <s> ANDROID STUDIOS
-0.3010 <s> APP STORE
-0.3010 <s> APPIUM </s>
-0.3010 <s> CAFFEINE </s>
-0.3010 <s> CALENDAR </s>
-0.3010 <s> CHROME </s>
-0.3010 <s> DRIVE </s>
-0.3010 <s> EXCEL </s>
-0.3010 <s> FACETIME </s>
-0.3010 <s> FINDER </s>
-0.3010 <s> FIREFOX </s>
-0.3010 <s> GITHUB </s>
-0.3010 <s> GO </s>
-0.3010 <s> GOOGLE </s>
-0.3010 <s> INTELLIJ </s>
-0.3010 <s> ITUNES </s>
-0.3010 <s> JGRASP </s>
-0.3010 <s> KINDLE </s>
-0.3010 <s> KODI </s>
-0.3010 <s> MAC </s>
-0.3010 <s> MAIL </s>
-0.3010 <s> MAPS </s>
-0.3010 <s> MESSAGES </s>
-0.3010 <s> MONGODB </s>
-0.3010 <s> NOTES </s>
-0.3010 <s> OUTLOOK </s>
-0.3010 <s> PAUSE </s>
-0.3010 <s> PHOTOS </s>
-0.3010 <s> PLAY </s>
-0.3010 <s> POWERPOINT </s>
-0.3010 <s> PREVIEW </s>
-0.3010 <s> PYTHON </s>
-0.3010 <s> QUICKTIME PLAYER
-0.3010 <s> SAFARI </s>
-0.3010 <s> SELENIUM </s>
-0.3010 <s> SETTINGS </s>
-0.3010 <s> SKYPE </s>
-0.3010 <s> SONOS </s>
-0.3010 <s> SPOTIFY </s>
-0.3010 <s> STICKIES </s>
-0.3010 <s> STOP </s>
-0.3010 <s> SUBLIME </s>
-0.3010 <s> TEAMVIEWER </s>
-0.3010 <s> TERMINAL </s>
-0.3010 <s> TEXT </s>
-0.3010 <s> WIRESHARK </s>
-0.3010 <s> WORD </s>
-0.3010 <s> XCODE </s>
-0.3010 ANDROID STUDIOS </s>
-0.3010 APP STORE </s>
-0.3010 QUICKTIME PLAYER </s>

\end\
