Language model created by QuickLM on Wed Sep  6 21:55:57 EDT 2017
Copyright (c) 1996-2010 Carnegie Mellon University and Alexander I. Rudnicky

The model is in standard ARPA format, designed by Doug Paul while he was at MITRE.

The code that was used to produce this language model is available in Open Source.
Please visit http://www.speech.cs.cmu.edu/tools/ for more information

The (fixed) discount mass is 0.5. The backoffs are computed using the ratio method.
This model based on a corpus of 11 sentences and 17 words

\data\
ngram 1=17
ngram 2=26
ngram 3=26

\1-grams:
-0.9839 </s> -0.3010
-0.9839 <s> -0.2534
-2.0253 APPIUM -0.2534
-2.0253 DOWN -0.2534
-2.0253 ECLIPSE -0.2534
-2.0253 GITHUB -0.2534
-0.9839 MAC -0.2534
-2.0253 MONGODB -0.2534
-1.7243 MUSIC -0.2534
-1.3263 OPEN -0.2800
-2.0253 PAUSE -0.2928
-2.0253 PLAY -0.2928
-2.0253 QUIT -0.2534
-2.0253 SPOTIFY -0.2534
-2.0253 SPREAD -0.2534
-2.0253 UP -0.2534
-1.7243 VOLUME -0.2928

\2-grams:
-0.3010 <s> MAC 0.0000
-0.3010 APPIUM </s> -0.3010
-0.3010 DOWN </s> -0.3010
-0.3010 ECLIPSE </s> -0.3010
-0.3010 GITHUB </s> -0.3010
-0.6435 MAC OPEN 0.0000
-1.3424 MAC PAUSE 0.0000
-1.3424 MAC PLAY 0.0000
-1.3424 MAC QUIT 0.0000
-1.3424 MAC SPREAD 0.0000
-1.0414 MAC VOLUME 0.0000
-0.3010 MONGODB </s> -0.3010
-0.3010 MUSIC </s> -0.3010
-1.0000 OPEN APPIUM 0.0000
-1.0000 OPEN ECLIPSE 0.0000
-1.0000 OPEN GITHUB 0.0000
-1.0000 OPEN MONGODB 0.0000
-1.0000 OPEN SPOTIFY 0.0000
-0.3010 PAUSE MUSIC 0.0000
-0.3010 PLAY MUSIC 0.0000
-0.3010 QUIT </s> -0.3010
-0.3010 SPOTIFY </s> -0.3010
-0.3010 SPREAD </s> -0.3010
-0.3010 UP </s> -0.3010
-0.6021 VOLUME DOWN 0.0000
-0.6021 VOLUME UP 0.0000

\3-grams:
-0.6435 <s> MAC OPEN
-1.3424 <s> MAC PAUSE
-1.3424 <s> MAC PLAY
-1.3424 <s> MAC QUIT
-1.3424 <s> MAC SPREAD
-1.0414 <s> MAC VOLUME
-1.0000 MAC OPEN APPIUM
-1.0000 MAC OPEN ECLIPSE
-1.0000 MAC OPEN GITHUB
-1.0000 MAC OPEN MONGODB
-1.0000 MAC OPEN SPOTIFY
-0.3010 MAC PAUSE MUSIC
-0.3010 MAC PLAY MUSIC
-0.3010 MAC QUIT </s>
-0.3010 MAC SPREAD </s>
-0.6021 MAC VOLUME DOWN
-0.6021 MAC VOLUME UP
-0.3010 OPEN APPIUM </s>
-0.3010 OPEN ECLIPSE </s>
-0.3010 OPEN GITHUB </s>
-0.3010 OPEN MONGODB </s>
-0.3010 OPEN SPOTIFY </s>
-0.3010 PAUSE MUSIC </s>
-0.3010 PLAY MUSIC </s>
-0.3010 VOLUME DOWN </s>
-0.3010 VOLUME UP </s>

\end\
