Language model created by QuickLM on Wed Sep  6 21:46:37 EDT 2017
Copyright (c) 1996-2010 Carnegie Mellon University and Alexander I. Rudnicky

The model is in standard ARPA format, designed by Doug Paul while he was at MITRE.

The code that was used to produce this language model is available in Open Source.
Please visit http://www.speech.cs.cmu.edu/tools/ for more information

The (fixed) discount mass is 0.5. The backoffs are computed using the ratio method.
This model based on a corpus of 6 sentences and 12 words

\data\
ngram 1=12
ngram 2=16
ngram 3=16

\1-grams:
-0.9853 </s> -0.3010
-0.9853 <s> -0.2536
-1.7634 DOWN -0.2536
-0.9853 MAC -0.2536
-1.4624 MUSIC -0.2536
-1.7634 OPEN -0.2935
-1.7634 PAUSE -0.2858
-1.7634 PLAY -0.2858
-1.7634 SPOTIFY -0.2536
-1.7634 SPREAD -0.2536
-1.7634 UP -0.2536
-1.4624 VOLUME -0.2858

\2-grams:
-0.3010 <s> MAC 0.0000
-0.3010 DOWN </s> -0.3010
-1.0792 MAC OPEN 0.0000
-1.0792 MAC PAUSE 0.0000
-1.0792 MAC PLAY 0.0000
-1.0792 MAC SPREAD 0.0000
-0.7782 MAC VOLUME 0.0000
-0.3010 MUSIC </s> -0.3010
-0.3010 OPEN SPOTIFY 0.0000
-0.3010 PAUSE MUSIC 0.0000
-0.3010 PLAY MUSIC 0.0000
-0.3010 SPOTIFY </s> -0.3010
-0.3010 SPREAD </s> -0.3010
-0.3010 UP </s> -0.3010
-0.6021 VOLUME DOWN 0.0000
-0.6021 VOLUME UP 0.0000

\3-grams:
-1.0792 <s> MAC OPEN
-1.0792 <s> MAC PAUSE
-1.0792 <s> MAC PLAY
-1.0792 <s> MAC SPREAD
-0.7782 <s> MAC VOLUME
-0.3010 MAC OPEN SPOTIFY
-0.3010 MAC PAUSE MUSIC
-0.3010 MAC PLAY MUSIC
-0.3010 MAC SPREAD </s>
-0.6021 MAC VOLUME DOWN
-0.6021 MAC VOLUME UP
-0.3010 OPEN SPOTIFY </s>
-0.3010 PAUSE MUSIC </s>
-0.3010 PLAY MUSIC </s>
-0.3010 VOLUME DOWN </s>
-0.3010 VOLUME UP </s>

\end\
